/*
 * Copyright (c) 2020, salesforce.com, inc.
 * All rights reserved.
 * Licensed under the BSD 3-Clause license.
 * For full license text, see LICENSE.txt file in the repo root or https://opensource.org/licenses/BSD-3-Clause
 */

/* eslint-disable complexity */
/* eslint-disable no-lonely-if */
/* eslint-disable unicorn/numeric-separators-style */

import { Connection } from '@salesforce/core';

export async function getNumberOfMembers(
  connection: Connection,
  Package2VersionId: string,
  subjectKeyPrefix: string
): Promise<number> {
  const query = `SELECT COUNT(Id) FROM ReleasedEntityState WHERE Package2VersionId = '${Package2VersionId}' AND SubjectKeyPrefix = '${subjectKeyPrefix}'`;
  const result = await connection.tooling.query(query);
  return result.totalSize;
}

export async function getSizeInBytes(connection: Connection, packageVersionId: string): Promise<number> {
  const query = `SELECT TotalSizeOfMetadataFiles FROM Package2Version WHERE Id = '${packageVersionId}'`;
  const result = await connection.tooling.query(query);
  return (result.records[0]?.TotalSizeOfMetadataFiles as number) || 0;
}

export async function predictPackageUpgradeRunTime(
  connection: Connection,
  subscriberPackageVersionId: string
): Promise<number> {
  // Get Package2Version Id from SubscriberPackageVersionId
  const package2VersionQuery = `SELECT Id FROM Package2Version WHERE SubscriberPackageVersionId = '${subscriberPackageVersionId}'`;
  const package2VersionResult = await connection.tooling.query(package2VersionQuery);
  const package2VersionId = package2VersionResult.records[0]?.Id as string;

  // Get size in bytes
  const sizeBytes = await getSizeInBytes(connection, subscriberPackageVersionId);

  // Get member counts for each metadata type with their corresponding prefixes
  const layoutCount = await getNumberOfMembers(connection, package2VersionId, '00h');
  const apexClassCount = await getNumberOfMembers(connection, package2VersionId, '400');
  const ValidationRuleCount = await getNumberOfMembers(connection, package2VersionId, '405');
  const lightningComponentBundleCount = await getNumberOfMembers(connection, package2VersionId, '0Rb');

  // Prepare input array in the order expected by the model:
  // sizeBytes, Layout, ApexClass, ValidationRule, LightningComponentBundle
  const input = [sizeBytes, layoutCount, apexClassCount, ValidationRuleCount, lightningComponentBundleCount];

  // Call the XGBoost prediction model
  return xgbPredictRunTime(input);
}

export async function predictPackageUpgradeRunTimeLower(
  connection: Connection,
  subscriberPackageVersionId: string
): Promise<number> {
  // Get Package2Version Id from SubscriberPackageVersionId
  const package2VersionQuery = `SELECT Id FROM Package2Version WHERE SubscriberPackageVersionId = '${subscriberPackageVersionId}'`;
  const package2VersionResult = await connection.tooling.query(package2VersionQuery);
  const package2VersionId = package2VersionResult.records[0]?.Id as string;

  // Get size in bytes
  const sizeBytes = await getSizeInBytes(connection, subscriberPackageVersionId);

  // Get member counts for each metadata type with their corresponding prefixes
  const layoutCount = await getNumberOfMembers(connection, package2VersionId, '00h');
  const apexClassCount = await getNumberOfMembers(connection, package2VersionId, '400');
  const ValidationRuleCount = await getNumberOfMembers(connection, package2VersionId, '405');
  const lightningComponentBundleCount = await getNumberOfMembers(connection, package2VersionId, '0Rb');

  // Prepare input array in the order expected by the model:
  // sizeBytes, Layout, ApexClass, ValidationRule, LightningComponentBundle
  const input = [sizeBytes, layoutCount, apexClassCount, ValidationRuleCount, lightningComponentBundleCount];

  // Call the XGBoost prediction model
  return xgbPredictLowerRunTime(input);
}

export async function predictPackageUpgradeRunTimeUpper(
  connection: Connection,
  subscriberPackageVersionId: string
): Promise<number> {
  // Get Package2Version Id from SubscriberPackageVersionId
  const package2VersionQuery = `SELECT Id FROM Package2Version WHERE SubscriberPackageVersionId = '${subscriberPackageVersionId}'`;
  const package2VersionResult = await connection.tooling.query(package2VersionQuery);
  const package2VersionId = package2VersionResult.records[0]?.Id as string;

  // Get size in bytes
  const sizeBytes = await getSizeInBytes(connection, subscriberPackageVersionId);

  // Get member counts for each metadata type with their corresponding prefixes
  const layoutCount = await getNumberOfMembers(connection, package2VersionId, '00h');
  const apexClassCount = await getNumberOfMembers(connection, package2VersionId, '400');
  const ValidationRuleCount = await getNumberOfMembers(connection, package2VersionId, '405');
  const lightningComponentBundleCount = await getNumberOfMembers(connection, package2VersionId, '0Rb');

  // Prepare input array in the order expected by the model:
  // sizeBytes, Layout, ApexClass, ValidationRule, LightningComponentBundle
  const input = [sizeBytes, layoutCount, apexClassCount, ValidationRuleCount, lightningComponentBundleCount];

  // Call the XGBoost prediction model
  return xgbPredictUpperRunTime(input);
}

// Model expects an input array with 5 features in this order: sizeBytes, Layout, ApexClass, ValidationRule, LightningComponentBundle
export function xgbPredictLowerRunTime(input: number[]): number {
  let var0;
  if (input[0] < 2146.0) {
    if (input[2] < 1.0) {
      if (input[4] < 1.0) {
        var0 = 171.15747;
      } else {
        var0 = -163.77005;
      }
    } else {
      if (input[2] < 2.0) {
        var0 = -243.72005;
      } else {
        var0 = 14.3099575;
      }
    }
  } else {
    if (input[4] < 1.0) {
      if (input[0] < 7646.0) {
        if (input[0] < 5739.0) {
          var0 = 372.20996;
        } else {
          if (input[2] < 2.0) {
            var0 = 996.8625;
          } else {
            if (input[2] < 5.0) {
              var0 = -91.60504;
            } else {
              var0 = 194.48997;
            }
          }
        }
      } else {
        if (input[2] < 1.0) {
          if (input[0] < 475282.0) {
            var0 = 476.925;
          } else {
            if (input[0] < 493774.0) {
              var0 = -68.31005;
            } else {
              var0 = 4928.1377;
            }
          }
        } else {
          if (input[0] < 10079.0) {
            if (input[2] < 6.0) {
              var0 = 927.57;
            } else {
              var0 = 92.354965;
            }
          } else {
            var0 = 1932.6749;
          }
        }
      }
    } else {
      var0 = 2640.7803;
    }
  }
  let var1;
  if (input[0] < 12596.0) {
    if (input[0] < 10079.0) {
      if (input[4] < 2.0) {
        if (input[2] < 1.0) {
          if (input[0] < 2359.0) {
            if (input[0] < 2146.0) {
              var1 = 58.581627;
            } else {
              var1 = -403.4042;
            }
          } else {
            if (input[0] < 5739.0) {
              var1 = 294.81363;
            } else {
              var1 = 649.14746;
            }
          }
        } else {
          if (input[2] < 5.0) {
            if (input[2] < 2.0) {
              var1 = -166.37402;
            } else {
              var1 = -19.19524;
            }
          } else {
            if (input[2] < 11.0) {
              var1 = 178.48347;
            } else {
              var1 = -10.276539;
            }
          }
        }
      } else {
        if (input[0] < 5739.0) {
          if (input[4] < 3.0) {
            var1 = -690.1292;
          } else {
            var1 = 924.69586;
          }
        } else {
          var1 = 335.88583;
        }
      }
    } else {
      if (input[2] < 5.0) {
        if (input[4] < 1.0) {
          if (input[2] < 4.0) {
            var1 = 571.8525;
          } else {
            var1 = 25.154943;
          }
        } else {
          if (input[4] < 2.0) {
            if (input[2] < 1.0) {
              var1 = 492.09583;
            } else {
              var1 = -114.2042;
            }
          } else {
            var1 = 1024.2959;
          }
        }
      } else {
        if (input[2] < 8.0) {
          if (input[1] < 1.0) {
            if (input[2] < 6.0) {
              var1 = -231.17256;
            } else {
              var1 = -485.19006;
            }
          } else {
            var1 = 10454.229;
          }
        } else {
          if (input[2] < 14.0) {
            var1 = 555.0675;
          } else {
            var1 = -287.57257;
          }
        }
      }
    }
  } else {
    if (input[2] < 1.0) {
      if (input[4] < 5.0) {
        if (input[0] < 475282.0) {
          if (input[4] < 2.0) {
            var1 = 318.05246;
          } else {
            if (input[0] < 240173.0) {
              var1 = 82.80581;
            } else {
              var1 = -341.0042;
            }
          }
        } else {
          if (input[0] < 493774.0) {
            if (input[1] < 1.0) {
              var1 = -48.567028;
            } else {
              var1 = 13428.999;
            }
          } else {
            if (input[0] < 6744856.0) {
              var1 = 463.9611;
            } else {
              var1 = 3518.9587;
            }
          }
        }
      } else {
        var1 = 2845.8132;
      }
    } else {
      if (input[0] < 26056.0) {
        if (input[1] < 1.0) {
          if (input[2] < 11.0) {
            if (input[2] < 9.0) {
              var1 = 337.55444;
            } else {
              var1 = 46.3558;
            }
          } else {
            var1 = 457.425;
          }
        } else {
          var1 = 2358.9675;
        }
      } else {
        if (input[0] < 34167.0) {
          if (input[4] < 6.0) {
            if (input[2] < 2.0) {
              var1 = 2432.4976;
            } else {
              var1 = 1590.5072;
            }
          } else {
            if (input[2] < 5.0) {
              var1 = 821.49585;
            } else {
              var1 = -68.904205;
            }
          }
        } else {
          if (input[0] < 182079.0) {
            if (input[0] < 176045.0) {
              var1 = 1689.1425;
            } else {
              var1 = 987.54;
            }
          } else {
            var1 = 8252.451;
          }
        }
      }
    }
  }
  let var2;
  if (input[0] < 12596.0) {
    if (input[4] < 2.0) {
      if (input[0] < 10079.0) {
        if (input[2] < 1.0) {
          if (input[0] < 2359.0) {
            if (input[0] < 2146.0) {
              var2 = 41.00714;
            } else {
              var2 = -282.38293;
            }
          } else {
            if (input[0] < 7646.0) {
              var2 = 231.99927;
            } else {
              var2 = 450.24823;
            }
          }
        } else {
          if (input[2] < 5.0) {
            if (input[0] < 8153.0) {
              var2 = -39.329994;
            } else {
              var2 = 1443.9976;
            }
          } else {
            if (input[2] < 11.0) {
              var2 = 124.93845;
            } else {
              var2 = -7.193555;
            }
          }
        }
      } else {
        if (input[2] < 5.0) {
          if (input[4] < 1.0) {
            if (input[2] < 4.0) {
              var2 = 400.2967;
            } else {
              var2 = 17.608433;
            }
          } else {
            if (input[2] < 1.0) {
              var2 = 344.4671;
            } else {
              var2 = -79.94297;
            }
          }
        } else {
          if (input[2] < 8.0) {
            if (input[1] < 1.0) {
              var2 = -310.86307;
            } else {
              var2 = 7317.959;
            }
          } else {
            if (input[2] < 14.0) {
              var2 = 388.54727;
            } else {
              var2 = -201.30081;
            }
          }
        }
      }
    } else {
      if (input[0] < 7646.0) {
        if (input[4] < 3.0) {
          if (input[2] < 1.0) {
            var2 = -482.15298;
          } else {
            var2 = 1348.3301;
          }
        } else {
          var2 = 647.2871;
        }
      } else {
        var2 = 736.95703;
      }
    }
  } else {
    if (input[1] < 1.0) {
      if (input[0] < 99561.0) {
        if (input[2] < 26.0) {
          if (input[0] < 32561.0) {
            if (input[2] < 20.0) {
              var2 = 163.85022;
            } else {
              var2 = -461.42477;
            }
          } else {
            if (input[0] < 37130.0) {
              var2 = 1754.1654;
            } else {
              var2 = 1434.0881;
            }
          }
        } else {
          if (input[2] < 28.0) {
            if (input[4] < 1.0) {
              var2 = -394.95535;
            } else {
              var2 = 5643.653;
            }
          } else {
            if (input[0] < 86563.0) {
              var2 = 1530.1462;
            } else {
              var2 = -291.79285;
            }
          }
        }
      } else {
        if (input[0] < 505961.0) {
          if (input[0] < 475282.0) {
            if (input[2] < 2.0) {
              var2 = 218.9617;
            } else {
              var2 = 907.14105;
            }
          } else {
            if (input[4] < 1.0) {
              var2 = -34.476925;
            } else {
              var2 = 6343.37;
            }
          }
        } else {
          if (input[0] < 6744856.0) {
            if (input[0] < 6306295.0) {
              var2 = 2029.0894;
            } else {
              var2 = -250.49971;
            }
          } else {
            var2 = 3061.876;
          }
        }
      }
    } else {
      var2 = 5400.4126;
    }
  }
  let var3;
  if (input[0] < 30878.0) {
    if (input[4] < 2.0) {
      if (input[2] < 1.0) {
        if (input[0] < 5739.0) {
          if (input[0] < 2359.0) {
            if (input[0] < 2146.0) {
              var3 = 28.70499;
            } else {
              var3 = -197.66808;
            }
          } else {
            if (input[0] < 3969.0) {
              var3 = 162.42955;
            } else {
              var3 = -22.026928;
            }
          }
        } else {
          if (input[0] < 26056.0) {
            if (input[0] < 10079.0) {
              var3 = 321.19623;
            } else {
              var3 = 846.8366;
            }
          } else {
            if (input[0] < 28138.0) {
              var3 = -48.21841;
            } else {
              var3 = 2625.4714;
            }
          }
        }
      } else {
        if (input[0] < 17053.0) {
          if (input[0] < 10079.0) {
            if (input[2] < 3.0) {
              var3 = -36.696003;
            } else {
              var3 = 52.997368;
            }
          } else {
            if (input[0] < 12596.0) {
              var3 = -127.034164;
            } else {
              var3 = -73.10325;
            }
          }
        } else {
          if (input[2] < 20.0) {
            if (input[0] < 20399.0) {
              var3 = 344.16794;
            } else {
              var3 = 1336.0015;
            }
          } else {
            if (input[2] < 22.0) {
              var3 = -322.9973;
            } else {
              var3 = 1145.9315;
            }
          }
        }
      }
    } else {
      if (input[0] < 5739.0) {
        if (input[4] < 3.0) {
          if (input[0] < 3969.0) {
            var3 = -340.31955;
          } else {
            var3 = -302.81955;
          }
        } else {
          var3 = 453.10095;
        }
      } else {
        if (input[0] < 28138.0) {
          if (input[4] < 3.0) {
            if (input[2] < 6.0) {
              var3 = 8.029073;
            } else {
              var3 = -11.906014;
            }
          } else {
            if (input[4] < 6.0) {
              var3 = 1511.4791;
            } else {
              var3 = -173.72772;
            }
          }
        } else {
          if (input[2] < 9.0) {
            if (input[4] < 5.0) {
              var3 = 933.8886;
            } else {
              var3 = -838.0033;
            }
          } else {
            if (input[2] < 10.0) {
              var3 = -285.91144;
            } else {
              var3 = 8772.289;
            }
          }
        }
      }
    }
  } else {
    if (input[1] < 1.0) {
      if (input[2] < 44.0) {
        if (input[0] < 6744856.0) {
          if (input[0] < 6306295.0) {
            if (input[0] < 475282.0) {
              var3 = 198.5859;
            } else {
              var3 = 62.48366;
            }
          } else {
            if (input[2] < 1.0) {
              var3 = -175.34985;
            } else {
              var3 = 30579.71;
            }
          }
        } else {
          if (input[2] < 1.0) {
            if (input[0] < 7308738.0) {
              var3 = 1620.5182;
            } else {
              var3 = 10698.451;
            }
          } else {
            var3 = 3716.0693;
          }
        }
      } else {
        var3 = 3102.904;
      }
    } else {
      if (input[1] < 3.0) {
        if (input[0] < 7308725.0) {
          if (input[4] < 7.0) {
            if (input[4] < 2.0) {
              var3 = 975.6015;
            } else {
              var3 = 2857.1504;
            }
          } else {
            var3 = 3579.3865;
          }
        } else {
          if (input[2] < 1.0) {
            var3 = -325.54056;
          } else {
            var3 = 2637.4307;
          }
        }
      } else {
        var3 = 4427.0474;
      }
    }
  }
  let var4;
  if (input[4] < 3.0) {
    if (input[0] < 8467581.0) {
      if (input[0] < 32561.0) {
        if (input[4] < 2.0) {
          if (input[2] < 18.0) {
            if (input[2] < 1.0) {
              var4 = 175.8872;
            } else {
              var4 = 17.896572;
            }
          } else {
            if (input[0] < 26056.0) {
              var4 = 92.362946;
            } else {
              var4 = -120.179;
            }
          }
        } else {
          if (input[0] < 5739.0) {
            var4 = -236.91116;
          } else {
            if (input[0] < 30878.0) {
              var4 = -0.8222162;
            } else {
              var4 = -465.27673;
            }
          }
        }
      } else {
        if (input[2] < 1.0) {
          if (input[0] < 156267.0) {
            if (input[4] < 1.0) {
              var4 = 2853.5522;
            } else {
              var4 = -250.45352;
            }
          } else {
            if (input[0] < 176045.0) {
              var4 = -74.28759;
            } else {
              var4 = 147.18253;
            }
          }
        } else {
          if (input[0] < 99561.0) {
            if (input[2] < 65.0) {
              var4 = 390.29123;
            } else {
              var4 = -461.04874;
            }
          } else {
            if (input[2] < 11.0) {
              var4 = 1242.0715;
            } else {
              var4 = 1146.6387;
            }
          }
        }
      }
    } else {
      if (input[0] < 11224514.0) {
        if (input[1] < 1.0) {
          if (input[2] < 1.0) {
            var4 = -2460.6973;
          } else {
            var4 = 7194.6084;
          }
        } else {
          if (input[0] < 10082696.0) {
            if (input[2] < 1.0) {
              var4 = -227.87825;
            } else {
              var4 = 833.13873;
            }
          } else {
            var4 = -652.97754;
          }
        }
      } else {
        var4 = 6337.947;
      }
    }
  } else {
    if (input[1] < 1.0) {
      if (input[4] < 29.0) {
        if (input[2] < 1.0) {
          if (input[4] < 18.0) {
            if (input[4] < 12.0) {
              var4 = 210.2273;
            } else {
              var4 = -490.97043;
            }
          } else {
            var4 = 1371.4075;
          }
        } else {
          if (input[4] < 27.0) {
            if (input[0] < 1577662.0) {
              var4 = 1878.9036;
            } else {
              var4 = 339.87634;
            }
          } else {
            if (input[2] < 26.0) {
              var4 = 1519.579;
            } else {
              var4 = -125.50752;
            }
          }
        }
      } else {
        var4 = 2344.42;
      }
    } else {
      if (input[0] < 45519.0) {
        if (input[0] < 42687.0) {
          if (input[0] < 32561.0) {
            var4 = 1128.5181;
          } else {
            if (input[0] < 34167.0) {
              var4 = -815.59454;
            } else {
              var4 = 2080.4646;
            }
          }
        } else {
          if (input[1] < 2.0) {
            if (input[2] < 9.0) {
              var4 = 5186.584;
            } else {
              var4 = -1687.9161;
            }
          } else {
            var4 = 12070.385;
          }
        }
      } else {
        if (input[1] < 6.0) {
          if (input[4] < 28.0) {
            if (input[0] < 156267.0) {
              var4 = 2907.7568;
            } else {
              var4 = 1340.904;
            }
          } else {
            var4 = 6222.046;
          }
        } else {
          var4 = 11507.117;
        }
      }
    }
  }
  let var5;
  if (input[4] < 13.0) {
    if (input[3] < 1.0) {
      if (input[0] < 6744856.0) {
        if (input[2] < 45.0) {
          if (input[0] < 156267.0) {
            if (input[2] < 27.0) {
              var5 = 112.83473;
            } else {
              var5 = -118.84175;
            }
          } else {
            if (input[4] < 10.0) {
              var5 = -107.881645;
            } else {
              var5 = 118.33135;
            }
          }
        } else {
          if (input[0] < 91952.0) {
            if (input[2] < 63.0) {
              var5 = 782.58777;
            } else {
              var5 = -322.7341;
            }
          } else {
            if (input[2] < 54.0) {
              var5 = 349.85675;
            } else {
              var5 = 1933.776;
            }
          }
        }
      } else {
        if (input[1] < 1.0) {
          if (input[2] < 3.0) {
            if (input[0] < 7426093.0) {
              var5 = 983.8053;
            } else {
              var5 = -2643.752;
            }
          } else {
            var5 = 5921.217;
          }
        } else {
          if (input[1] < 4.0) {
            if (input[2] < 7.0) {
              var5 = -368.04398;
            } else {
              var5 = 583.1971;
            }
          } else {
            var5 = 2639.781;
          }
        }
      }
    } else {
      if (input[0] < 39266.0) {
        if (input[1] < 3.0) {
          var5 = 1916.2268;
        } else {
          if (input[0] < 37130.0) {
            if (input[1] < 6.0) {
              var5 = 1437.0757;
            } else {
              var5 = -157.16719;
            }
          } else {
            if (input[1] < 4.0) {
              var5 = -786.1407;
            } else {
              var5 = 14451.128;
            }
          }
        }
      } else {
        if (input[2] < 30.0) {
          if (input[2] < 28.0) {
            if (input[4] < 2.0) {
              var5 = 3986.9382;
            } else {
              var5 = 3949.7642;
            }
          } else {
            if (input[0] < 195674.0) {
              var5 = -2152.224;
            } else {
              var5 = 3891.5715;
            }
          }
        } else {
          var5 = 6056.405;
        }
      }
    }
  } else {
    if (input[4] < 37.0) {
      if (input[3] < 1.0) {
        if (input[0] < 156267.0) {
          if (input[0] < 53439.0) {
            if (input[4] < 17.0) {
              var5 = 9378.241;
            } else {
              var5 = -166.55919;
            }
          } else {
            var5 = 1878.7047;
          }
        } else {
          if (input[0] < 164781.0) {
            if (input[2] < 1.0) {
              var5 = -810.0211;
            } else {
              var5 = 334.13184;
            }
          } else {
            if (input[4] < 27.0) {
              var5 = 1136.3481;
            } else {
              var5 = 497.16263;
            }
          }
        }
      } else {
        var5 = 9367.617;
      }
    } else {
      if (input[0] < 240173.0) {
        if (input[2] < 1.0) {
          if (input[0] < 233650.0) {
            var5 = 4733.5615;
          } else {
            var5 = -347.50195;
          }
        } else {
          var5 = 2419.4114;
        }
      } else {
        var5 = 6149.9316;
      }
    }
  }
  let var6;
  if (input[4] < 12.0) {
    if (input[3] < 1.0) {
      if (input[0] < 6744856.0) {
        if (input[2] < 32.0) {
          if (input[0] < 156267.0) {
            if (input[2] < 27.0) {
              var6 = 80.51065;
            } else {
              var6 = -278.58673;
            }
          } else {
            if (input[2] < 3.0) {
              var6 = -3.9698906;
            } else {
              var6 = -456.6197;
            }
          }
        } else {
          if (input[0] < 91952.0) {
            if (input[2] < 63.0) {
              var6 = 23.127014;
            } else {
              var6 = -225.91393;
            }
          } else {
            if (input[2] < 114.0) {
              var6 = 769.1982;
            } else {
              var6 = 2999.48;
            }
          }
        }
      } else {
        if (input[0] < 7426093.0) {
          if (input[2] < 3.0) {
            if (input[2] < 1.0) {
              var6 = 763.38605;
            } else {
              var6 = 415.50012;
            }
          } else {
            if (input[2] < 12.0) {
              var6 = 17397.807;
            } else {
              var6 = 3081.6816;
            }
          }
        } else {
          if (input[0] < 11224514.0) {
            if (input[1] < 1.0) {
              var6 = -1850.6262;
            } else {
              var6 = -223.78302;
            }
          } else {
            var6 = 3671.665;
          }
        }
      }
    } else {
      if (input[0] < 86563.0) {
        if (input[0] < 82629.0) {
          if (input[2] < 44.0) {
            if (input[2] < 13.0) {
              var6 = 1806.673;
            } else {
              var6 = 1118.5698;
            }
          } else {
            if (input[0] < 74582.0) {
              var6 = 1077.729;
            } else {
              var6 = -20.239454;
            }
          }
        } else {
          if (input[3] < 2.0) {
            if (input[4] < 2.0) {
              var6 = -931.21857;
            } else {
              var6 = -1168.6315;
            }
          } else {
            var6 = 2896.9883;
          }
        }
      } else {
        if (input[0] < 12727826.0) {
          if (input[4] < 2.0) {
            var6 = 4659.898;
          } else {
            if (input[2] < 5.0) {
              var6 = 1725.2222;
            } else {
              var6 = 4255.8613;
            }
          }
        } else {
          if (input[4] < 1.0) {
            if (input[1] < 20.0) {
              var6 = -386.05197;
            } else {
              var6 = 2223.048;
            }
          } else {
            var6 = 7770.485;
          }
        }
      }
    }
  } else {
    if (input[0] < 598693.0) {
      if (input[3] < 29.0) {
        if (input[0] < 156267.0) {
          if (input[4] < 13.0) {
            if (input[2] < 1.0) {
              var6 = -495.60968;
            } else {
              var6 = 124.947174;
            }
          } else {
            if (input[0] < 53439.0) {
              var6 = -116.59132;
            } else {
              var6 = 1321.3202;
            }
          }
        } else {
          if (input[0] < 349812.0) {
            if (input[0] < 164781.0) {
              var6 = -440.38138;
            } else {
              var6 = 487.3523;
            }
          } else {
            if (input[0] < 595620.0) {
              var6 = 1383.109;
            } else {
              var6 = 483.0647;
            }
          }
        }
      } else {
        if (input[0] < 164781.0) {
          if (input[3] < 33.0) {
            if (input[2] < 5.0) {
              var6 = 425.69534;
            } else {
              var6 = -257.4047;
            }
          } else {
            var6 = -1706.1047;
          }
        } else {
          var6 = 17941.402;
        }
      }
    } else {
      if (input[4] < 37.0) {
        if (input[2] < 1.0) {
          if (input[0] < 2451142.0) {
            if (input[4] < 33.0) {
              var6 = 1094.5851;
            } else {
              var6 = 238.98741;
            }
          } else {
            if (input[0] < 2751907.0) {
              var6 = -502.99515;
            } else {
              var6 = 1144.0829;
            }
          }
        } else {
          if (input[0] < 727599.0) {
            if (input[2] < 64.0) {
              var6 = -97.85554;
            } else {
              var6 = 5852.122;
            }
          } else {
            if (input[3] < 1.0) {
              var6 = 2627.7056;
            } else {
              var6 = 10116.605;
            }
          }
        }
      } else {
        var6 = 11093.575;
      }
    }
  }
  let var7;
  if (input[2] < 57.0) {
    if (input[0] < 12596.0) {
      if (input[0] < 10079.0) {
        if (input[4] < 2.0) {
          if (input[2] < 1.0) {
            if (input[0] < 5739.0) {
              var7 = -45.26423;
            } else {
              var7 = 114.06739;
            }
          } else {
            if (input[2] < 8.0) {
              var7 = -56.819405;
            } else {
              var7 = 62.08526;
            }
          }
        } else {
          if (input[0] < 7646.0) {
            if (input[4] < 3.0) {
              var7 = -222.52896;
            } else {
              var7 = 196.09865;
            }
          } else {
            var7 = 1992.4272;
          }
        }
      } else {
        if (input[2] < 5.0) {
          if (input[2] < 1.0) {
            if (input[1] < 1.0) {
              var7 = -168.60568;
            } else {
              var7 = 492.75412;
            }
          } else {
            if (input[4] < 1.0) {
              var7 = 15.556089;
            } else {
              var7 = -81.22251;
            }
          }
        } else {
          if (input[2] < 7.0) {
            if (input[1] < 1.0) {
              var7 = -275.739;
            } else {
              var7 = 5097.3096;
            }
          } else {
            if (input[2] < 8.0) {
              var7 = -158.93399;
            } else {
              var7 = -84.698814;
            }
          }
        }
      }
    } else {
      if (input[3] < 2.0) {
        if (input[4] < 16.0) {
          if (input[0] < 6744856.0) {
            if (input[0] < 323362.0) {
              var7 = 91.276596;
            } else {
              var7 = -34.00829;
            }
          } else {
            if (input[0] < 7426093.0) {
              var7 = 826.4954;
            } else {
              var7 = -217.85555;
            }
          }
        } else {
          if (input[1] < 10.0) {
            if (input[3] < 1.0) {
              var7 = 510.23502;
            } else {
              var7 = -926.772;
            }
          } else {
            if (input[4] < 18.0) {
              var7 = -826.86096;
            } else {
              var7 = 10238.888;
            }
          }
        }
      } else {
        if (input[0] < 206927.0) {
          if (input[4] < 4.0) {
            if (input[0] < 42687.0) {
              var7 = 886.85394;
            } else {
              var7 = 2846.747;
            }
          } else {
            if (input[1] < 4.0) {
              var7 = 5672.5576;
            } else {
              var7 = -1120.5165;
            }
          }
        } else {
          if (input[2] < 5.0) {
            if (input[3] < 3.0) {
              var7 = 1410.687;
            } else {
              var7 = 13636.194;
            }
          } else {
            var7 = 6317.5176;
          }
        }
      }
    }
  } else {
    if (input[0] < 91952.0) {
      if (input[0] < 86563.0) {
        if (input[0] < 53933.0) {
          var7 = -764.6323;
        } else {
          var7 = 376.35104;
        }
      } else {
        if (input[2] < 63.0) {
          var7 = 2820.0686;
        } else {
          var7 = -158.13971;
        }
      }
    } else {
      if (input[0] < 261139.0) {
        if (input[2] < 108.0) {
          if (input[2] < 85.0) {
            if (input[0] < 133676.0) {
              var7 = 493.56723;
            } else {
              var7 = 2875.2095;
            }
          } else {
            if (input[2] < 98.0) {
              var7 = 63.691765;
            } else {
              var7 = 3453.6074;
            }
          }
        } else {
          if (input[2] < 114.0) {
            if (input[1] < 1.0) {
              var7 = -626.2676;
            } else {
              var7 = 1334.8794;
            }
          } else {
            if (input[2] < 225.0) {
              var7 = 900.5575;
            } else {
              var7 = -2767.79;
            }
          }
        }
      } else {
        if (input[2] < 147.0) {
          if (input[2] < 117.0) {
            if (input[4] < 66.0) {
              var7 = 2874.6995;
            } else {
              var7 = 12950.302;
            }
          } else {
            if (input[0] < 1070257.0) {
              var7 = 1106.6426;
            } else {
              var7 = 9368.378;
            }
          }
        } else {
          if (input[0] < 505961.0) {
            if (input[3] < 15.0) {
              var7 = 5992.7354;
            } else {
              var7 = -1163.5651;
            }
          } else {
            if (input[4] < 8.0) {
              var7 = 2215.526;
            } else {
              var7 = 11222.801;
            }
          }
        }
      }
    }
  }
  let var8;
  if (input[4] < 49.0) {
    if (input[3] < 3.0) {
      if (input[0] < 32561.0) {
        if (input[2] < 18.0) {
          if (input[4] < 2.0) {
            if (input[2] < 1.0) {
              var8 = 60.084675;
            } else {
              var8 = -14.497385;
            }
          } else {
            if (input[1] < 1.0) {
              var8 = -102.508766;
            } else {
              var8 = 1069.6389;
            }
          }
        } else {
          if (input[2] < 22.0) {
            if (input[0] < 26056.0) {
              var8 = -20.732521;
            } else {
              var8 = -203.82452;
            }
          } else {
            var8 = 569.1085;
          }
        }
      } else {
        if (input[2] < 221.0) {
          if (input[2] < 147.0) {
            if (input[0] < 156267.0) {
              var8 = 511.27493;
            } else {
              var8 = 72.88119;
            }
          } else {
            if (input[0] < 195674.0) {
              var8 = -338.68127;
            } else {
              var8 = 1770.2583;
            }
          }
        } else {
          if (input[3] < 1.0) {
            if (input[2] < 225.0) {
              var8 = -1614.0648;
            } else {
              var8 = 2013.768;
            }
          } else {
            if (input[0] < 598693.0) {
              var8 = 1021.8258;
            } else {
              var8 = -1836.6113;
            }
          }
        }
      }
    } else {
      if (input[3] < 20.0) {
        if (input[1] < 3.0) {
          if (input[0] < 91952.0) {
            if (input[2] < 44.0) {
              var8 = 2023.4308;
            } else {
              var8 = -99.61407;
            }
          } else {
            if (input[4] < 7.0) {
              var8 = 2840.7678;
            } else {
              var8 = 9184.937;
            }
          }
        } else {
          if (input[0] < 42687.0) {
            if (input[2] < 11.0) {
              var8 = 9307.731;
            } else {
              var8 = -1151.9257;
            }
          } else {
            if (input[2] < 31.0) {
              var8 = 639.78564;
            } else {
              var8 = 2766.3506;
            }
          }
        }
      } else {
        if (input[4] < 33.0) {
          if (input[0] < 164781.0) {
            if (input[4] < 13.0) {
              var8 = 4763.5996;
            } else {
              var8 = -858.1184;
            }
          } else {
            var8 = 15852.336;
          }
        } else {
          if (input[3] < 22.0) {
            if (input[1] < 20.0) {
              var8 = -4315.838;
            } else {
              var8 = 5302.826;
            }
          } else {
            if (input[1] < 1.0) {
              var8 = -688.06995;
            } else {
              var8 = 31089.865;
            }
          }
        }
      }
    }
  } else {
    if (input[0] < 852724.0) {
      if (input[1] < 23.0) {
        if (input[1] < 7.0) {
          if (input[0] < 404237.0) {
            if (input[2] < 28.0) {
              var8 = 991.89746;
            } else {
              var8 = -578.3142;
            }
          } else {
            if (input[0] < 767561.0) {
              var8 = 2310.6013;
            } else {
              var8 = 586.4537;
            }
          }
        } else {
          if (input[3] < 1.0) {
            if (input[0] < 833014.0) {
              var8 = 913.8725;
            } else {
              var8 = -141.79477;
            }
          } else {
            if (input[1] < 12.0) {
              var8 = -1026.7625;
            } else {
              var8 = 10971.286;
            }
          }
        }
      } else {
        if (input[1] < 25.0) {
          var8 = -3677.8547;
        } else {
          if (input[2] < 114.0) {
            if (input[0] < 654955.0) {
              var8 = -802.35474;
            } else {
              var8 = 8586.27;
            }
          } else {
            var8 = 6105.6426;
          }
        }
      }
    } else {
      if (input[4] < 68.0) {
        if (input[2] < 3.0) {
          if (input[0] < 2451142.0) {
            var8 = 466.08356;
          } else {
            if (input[4] < 66.0) {
              var8 = -2567.8384;
            } else {
              var8 = -2483.468;
            }
          }
        } else {
          if (input[2] < 94.0) {
            if (input[0] < 925251.0) {
              var8 = -570.6305;
            } else {
              var8 = 1405.7568;
            }
          } else {
            if (input[3] < 1.0) {
              var8 = 2361.3948;
            } else {
              var8 = 17292.973;
            }
          }
        }
      } else {
        if (input[2] < 114.0) {
          if (input[2] < 105.0) {
            if (input[1] < 1.0) {
              var8 = 8835.195;
            } else {
              var8 = 11585.108;
            }
          } else {
            if (input[0] < 4037673.0) {
              var8 = 46419.15;
            } else {
              var8 = -1294.3055;
            }
          }
        } else {
          var8 = 29384.107;
        }
      }
    }
  }
  let var9;
  if (input[4] < 49.0) {
    if (input[3] < 3.0) {
      if (input[0] < 4268037.0) {
        if (input[0] < 1602554.0) {
          if (input[4] < 3.0) {
            if (input[1] < 1.0) {
              var9 = -19.736864;
            } else {
              var9 = 239.85129;
            }
          } else {
            if (input[1] < 3.0) {
              var9 = 454.88312;
            } else {
              var9 = -44.857956;
            }
          }
        } else {
          if (input[4] < 1.0) {
            if (input[2] < 8.0) {
              var9 = -1604.8951;
            } else {
              var9 = 1596.3278;
            }
          } else {
            if (input[2] < 225.0) {
              var9 = -525.76227;
            } else {
              var9 = 1421.397;
            }
          }
        }
      } else {
        if (input[2] < 3.0) {
          if (input[1] < 10.0) {
            if (input[0] < 6744856.0) {
              var9 = -1828.2997;
            } else {
              var9 = 196.84723;
            }
          } else {
            var9 = 5592.093;
          }
        } else {
          if (input[1] < 3.0) {
            if (input[2] < 16.0) {
              var9 = 6016.728;
            } else {
              var9 = 2048.539;
            }
          } else {
            if (input[2] < 7.0) {
              var9 = -222.24318;
            } else {
              var9 = 3271.4968;
            }
          }
        }
      }
    } else {
      if (input[1] < 28.0) {
        if (input[4] < 27.0) {
          if (input[1] < 24.0) {
            if (input[1] < 3.0) {
              var9 = 2579.9282;
            } else {
              var9 = 1768.4397;
            }
          } else {
            if (input[3] < 7.0) {
              var9 = -2633.6907;
            } else {
              var9 = 465.46423;
            }
          }
        } else {
          if (input[2] < 7.0) {
            if (input[3] < 15.0) {
              var9 = -6068.8667;
            } else {
              var9 = -3688.7192;
            }
          } else {
            if (input[3] < 87.0) {
              var9 = 660.90735;
            } else {
              var9 = -1793.04;
            }
          }
        }
      } else {
        if (input[0] < 379566.0) {
          if (input[4] < 10.0) {
            var9 = 8724.788;
          } else {
            if (input[0] < 223843.0) {
              var9 = 4225.397;
            } else {
              var9 = -566.1914;
            }
          }
        } else {
          var9 = 18322.598;
        }
      }
    }
  } else {
    if (input[0] < 1441273.0) {
      if (input[0] < 1295220.0) {
        if (input[2] < 42.0) {
          if (input[0] < 1285514.0) {
            if (input[0] < 610768.0) {
              var9 = 852.2508;
            } else {
              var9 = -85.4049;
            }
          } else {
            if (input[1] < 1.0) {
              var9 = -4527.319;
            } else {
              var9 = 9464.045;
            }
          }
        } else {
          if (input[2] < 392.0) {
            if (input[0] < 944424.0) {
              var9 = 2510.9788;
            } else {
              var9 = 7810.634;
            }
          } else {
            if (input[2] < 410.0) {
              var9 = -1245.375;
            } else {
              var9 = 1682.025;
            }
          }
        }
      } else {
        if (input[4] < 145.0) {
          if (input[1] < 2.0) {
            if (input[1] < 1.0) {
              var9 = 796.0735;
            } else {
              var9 = -46.76719;
            }
          } else {
            var9 = 5001.067;
          }
        } else {
          if (input[2] < 221.0) {
            var9 = 10632.863;
          } else {
            var9 = -7868.989;
          }
        }
      }
    } else {
      if (input[4] < 88.0) {
        if (input[0] < 20743692.0) {
          if (input[1] < 1.0) {
            if (input[2] < 255.0) {
              var9 = -1734.6699;
            } else {
              var9 = 25375.666;
            }
          } else {
            if (input[4] < 58.0) {
              var9 = 2106.957;
            } else {
              var9 = 7220.5215;
            }
          }
        } else {
          if (input[2] < 155.0) {
            if (input[2] < 108.0) {
              var9 = -462.0633;
            } else {
              var9 = -8118.0376;
            }
          } else {
            var9 = 32072.025;
          }
        }
      } else {
        if (input[4] < 138.0) {
          if (input[2] < 225.0) {
            if (input[2] < 139.0) {
              var9 = 12115.8125;
            } else {
              var9 = -487.8417;
            }
          } else {
            var9 = 39018.78;
          }
        } else {
          var9 = 22083.127;
        }
      }
    }
  }
  let var10;
  if (input[2] < 242.0) {
    if (input[1] < 28.0) {
      if (input[2] < 236.0) {
        if (input[2] < 32.0) {
          if (input[2] < 24.0) {
            if (input[0] < 32561.0) {
              var10 = -3.964022;
            } else {
              var10 = 100.829445;
            }
          } else {
            if (input[0] < 99561.0) {
              var10 = -426.34903;
            } else {
              var10 = -11.213552;
            }
          }
        } else {
          if (input[0] < 91952.0) {
            if (input[2] < 59.0) {
              var10 = -200.19041;
            } else {
              var10 = -258.15924;
            }
          } else {
            if (input[0] < 20743692.0) {
              var10 = 909.65656;
            } else {
              var10 = -5328.045;
            }
          }
        }
      } else {
        if (input[3] < 1.0) {
          var10 = 4167.328;
        } else {
          if (input[3] < 2.0) {
            if (input[0] < 610768.0) {
              var10 = -1706.4282;
            } else {
              var10 = -1387.3782;
            }
          } else {
            var10 = 13756.329;
          }
        }
      }
    } else {
      if (input[1] < 31.0) {
        if (input[2] < 3.0) {
          if (input[1] < 30.0) {
            var10 = 4135.58;
          } else {
            if (input[0] < 1441273.0) {
              var10 = 2225.8242;
            } else {
              var10 = -2429.5735;
            }
          }
        } else {
          if (input[0] < 5337604.0) {
            if (input[4] < 2.0) {
              var10 = 1504.0126;
            } else {
              var10 = 9278.096;
            }
          } else {
            if (input[0] < 9687874.0) {
              var10 = -3050.9062;
            } else {
              var10 = 10233.53;
            }
          }
        }
      } else {
        if (input[1] < 51.0) {
          if (input[1] < 49.0) {
            if (input[1] < 43.0) {
              var10 = 12320.568;
            } else {
              var10 = 6510.2;
            }
          } else {
            if (input[2] < 3.0) {
              var10 = -4333.3276;
            } else {
              var10 = 6354.7036;
            }
          }
        } else {
          var10 = 12301.66;
        }
      }
    }
  } else {
    if (input[0] < 297112.0) {
      if (input[0] < 223843.0) {
        var10 = -2535.662;
      } else {
        if (input[2] < 318.0) {
          var10 = -2032.4204;
        } else {
          if (input[0] < 290067.0) {
            var10 = 6422.48;
          } else {
            var10 = -1216.1204;
          }
        }
      }
    } else {
      if (input[0] < 1285514.0) {
        if (input[1] < 1.0) {
          if (input[2] < 255.0) {
            if (input[0] < 925251.0) {
              var10 = 105.23203;
            } else {
              var10 = -3048.068;
            }
          } else {
            if (input[0] < 571337.0) {
              var10 = -353.74243;
            } else {
              var10 = 4552.1567;
            }
          }
        } else {
          if (input[2] < 392.0) {
            if (input[4] < 12.0) {
              var10 = 3429.4258;
            } else {
              var10 = 3395.5674;
            }
          } else {
            if (input[1] < 3.0) {
              var10 = -871.7625;
            } else {
              var10 = 1115.4756;
            }
          }
        }
      } else {
        if (input[2] < 255.0) {
          if (input[3] < 1.0) {
            if (input[0] < 1763707.0) {
              var10 = -1789.5868;
            } else {
              var10 = 27594.537;
            }
          } else {
            var10 = 9128.326;
          }
        } else {
          if (input[3] < 1.0) {
            if (input[4] < 198.0) {
              var10 = 4457.7627;
            } else {
              var10 = 6148.6577;
            }
          } else {
            var10 = 19105.389;
          }
        }
      }
    }
  }
  let var11;
  if (input[4] < 50.0) {
    if (input[3] < 6.0) {
      if (input[0] < 4268037.0) {
        if (input[1] < 1.0) {
          if (input[0] < 176044.0) {
            if (input[0] < 115446.0) {
              var11 = -15.091366;
            } else {
              var11 = 1323.6809;
            }
          } else {
            if (input[0] < 176045.0) {
              var11 = -75.250916;
            } else {
              var11 = -53.526154;
            }
          }
        } else {
          if (input[1] < 3.0) {
            if (input[0] < 32561.0) {
              var11 = -40.141056;
            } else {
              var11 = 697.1561;
            }
          } else {
            if (input[2] < 8.0) {
              var11 = -323.1604;
            } else {
              var11 = 192.46466;
            }
          }
        }
      } else {
        if (input[2] < 3.0) {
          if (input[4] < 44.0) {
            if (input[1] < 13.0) {
              var11 = 104.911415;
            } else {
              var11 = 5227.2754;
            }
          } else {
            if (input[0] < 6306295.0) {
              var11 = 4418.78;
            } else {
              var11 = -54.820316;
            }
          }
        } else {
          if (input[1] < 2.0) {
            if (input[2] < 7.0) {
              var11 = 8538.787;
            } else {
              var11 = 1288.7908;
            }
          } else {
            if (input[4] < 1.0) {
              var11 = -1316.4023;
            } else {
              var11 = 40.928574;
            }
          }
        }
      }
    } else {
      if (input[0] < 1441273.0) {
        if (input[4] < 36.0) {
          if (input[2] < 166.0) {
            if (input[3] < 13.0) {
              var11 = 1507.082;
            } else {
              var11 = 2249.1587;
            }
          } else {
            if (input[2] < 189.0) {
              var11 = -2821.2437;
            } else {
              var11 = 4088.2952;
            }
          }
        } else {
          if (input[0] < 595620.0) {
            if (input[1] < 5.0) {
              var11 = 75427.34;
            } else {
              var11 = -4251.863;
            }
          } else {
            if (input[3] < 27.0) {
              var11 = -4626.5664;
            } else {
              var11 = 29312.596;
            }
          }
        }
      } else {
        if (input[3] < 7.0) {
          if (input[2] < 85.0) {
            if (input[0] < 1968256.0) {
              var11 = 3612.2415;
            } else {
              var11 = -2765.9814;
            }
          } else {
            if (input[2] < 130.0) {
              var11 = 381.0293;
            } else {
              var11 = -848.2524;
            }
          }
        } else {
          if (input[3] < 12.0) {
            if (input[4] < 2.0) {
              var11 = -1467.0059;
            } else {
              var11 = 2783.7007;
            }
          } else {
            if (input[2] < 54.0) {
              var11 = 12071.441;
            } else {
              var11 = 15475.438;
            }
          }
        }
      }
    }
  } else {
    if (input[3] < 2.0) {
      if (input[4] < 172.0) {
        if (input[4] < 149.0) {
          if (input[0] < 4288305.0) {
            if (input[1] < 22.0) {
              var11 = 1289.5715;
            } else {
              var11 = -660.605;
            }
          } else {
            if (input[4] < 68.0) {
              var11 = -1640.2356;
            } else {
              var11 = -28.961704;
            }
          }
        } else {
          if (input[2] < 221.0) {
            var11 = 1088.0519;
          } else {
            var11 = -5781.1875;
          }
        }
      } else {
        if (input[2] < 568.0) {
          if (input[2] < 59.0) {
            var11 = 8016.3945;
          } else {
            if (input[2] < 94.0) {
              var11 = 2560.5469;
            } else {
              var11 = 15943.835;
            }
          }
        } else {
          if (input[2] < 645.0) {
            if (input[1] < 16.0) {
              var11 = -3878.372;
            } else {
              var11 = 15524.129;
            }
          } else {
            var11 = 52938.76;
          }
        }
      }
    } else {
      if (input[0] < 752804.0) {
        if (input[0] < 654955.0) {
          if (input[1] < 21.0) {
            var11 = 941.2493;
          } else {
            if (input[2] < 105.0) {
              var11 = -935.0391;
            } else {
              var11 = 3247.759;
            }
          }
        } else {
          if (input[1] < 12.0) {
            if (input[2] < 40.0) {
              var11 = -1787.4669;
            } else {
              var11 = -1254.0669;
            }
          } else {
            var11 = 4657.819;
          }
        }
      } else {
        if (input[0] < 2598274.0) {
          if (input[4] < 149.0) {
            if (input[1] < 14.0) {
              var11 = 1763.3977;
            } else {
              var11 = 4993.324;
            }
          } else {
            if (input[3] < 6.0) {
              var11 = 17950.834;
            } else {
              var11 = -3844.847;
            }
          }
        } else {
          if (input[0] < 20743692.0) {
            if (input[4] < 88.0) {
              var11 = 12100.997;
            } else {
              var11 = 13912.405;
            }
          } else {
            if (input[3] < 4.0) {
              var11 = -4084.212;
            } else {
              var11 = 18150.428;
            }
          }
        }
      }
    }
  }
  let var12;
  if (input[4] < 81.0) {
    if (input[3] < 14.0) {
      if (input[2] < 147.0) {
        if (input[0] < 1285514.0) {
          if (input[0] < 301116.0) {
            if (input[1] < 70.0) {
              var12 = 32.989864;
            } else {
              var12 = -2162.0667;
            }
          } else {
            if (input[4] < 8.0) {
              var12 = -95.42751;
            } else {
              var12 = -49.481586;
            }
          }
        } else {
          if (input[0] < 1785127.0) {
            if (input[1] < 4.0) {
              var12 = 6130.0938;
            } else {
              var12 = 1649.2164;
            }
          } else {
            if (input[0] < 2050462.0) {
              var12 = -1248.8801;
            } else {
              var12 = 209.30031;
            }
          }
        }
      } else {
        if (input[2] < 189.0) {
          if (input[0] < 6306295.0) {
            if (input[3] < 10.0) {
              var12 = 6916.5605;
            } else {
              var12 = -931.62177;
            }
          } else {
            if (input[0] < 8911089.0) {
              var12 = -2382.7734;
            } else {
              var12 = -2787.845;
            }
          }
        } else {
          if (input[3] < 2.0) {
            if (input[1] < 4.0) {
              var12 = 335.6425;
            } else {
              var12 = -232.57329;
            }
          } else {
            if (input[3] < 13.0) {
              var12 = 1648.7947;
            } else {
              var12 = -1758.8297;
            }
          }
        }
      }
    } else {
      if (input[0] < 654955.0) {
        if (input[2] < 164.0) {
          if (input[4] < 43.0) {
            if (input[4] < 19.0) {
              var12 = 2516.7136;
            } else {
              var12 = -357.69818;
            }
          } else {
            if (input[4] < 44.0) {
              var12 = -2976.3047;
            } else {
              var12 = 6774.0156;
            }
          }
        } else {
          if (input[1] < 64.0) {
            if (input[0] < 505961.0) {
              var12 = -3027.7852;
            } else {
              var12 = -2127.6055;
            }
          } else {
            var12 = -3769.097;
          }
        }
      } else {
        if (input[3] < 16.0) {
          if (input[2] < 75.0) {
            if (input[2] < 47.0) {
              var12 = -496.70483;
            } else {
              var12 = -3494.6956;
            }
          } else {
            var12 = 12759.907;
          }
        } else {
          if (input[1] < 28.0) {
            if (input[1] < 19.0) {
              var12 = 6863.1216;
            } else {
              var12 = -422.3127;
            }
          } else {
            if (input[3] < 17.0) {
              var12 = 120.697044;
            } else {
              var12 = 13436.716;
            }
          }
        }
      }
    }
  } else {
    if (input[0] < 2598274.0) {
      if (input[3] < 1.0) {
        if (input[2] < 12.0) {
          if (input[2] < 10.0) {
            if (input[2] < 6.0) {
              var12 = 1667.2283;
            } else {
              var12 = -2817.6929;
            }
          } else {
            if (input[0] < 1285514.0) {
              var12 = 7760.684;
            } else {
              var12 = -3586.2424;
            }
          }
        } else {
          if (input[2] < 225.0) {
            if (input[0] < 1285514.0) {
              var12 = 4057.07;
            } else {
              var12 = 10373.464;
            }
          } else {
            if (input[2] < 255.0) {
              var12 = -4046.8313;
            } else {
              var12 = 14893.779;
            }
          }
        }
      } else {
        if (input[1] < 19.0) {
          if (input[1] < 16.0) {
            if (input[2] < 5.0) {
              var12 = -974.33154;
            } else {
              var12 = 961.24786;
            }
          } else {
            if (input[0] < 1441273.0) {
              var12 = -1067.2969;
            } else {
              var12 = -3799.219;
            }
          }
        } else {
          var12 = 10798.283;
        }
      }
    } else {
      if (input[3] < 2.0) {
        if (input[4] < 233.0) {
          if (input[0] < 4288305.0) {
            var12 = 5344.498;
          } else {
            if (input[4] < 129.0) {
              var12 = 272.43784;
            } else {
              var12 = -2481.8591;
            }
          }
        } else {
          if (input[0] < 3513082.0) {
            if (input[0] < 3482339.0) {
              var12 = 30036.672;
            } else {
              var12 = 3179.5671;
            }
          } else {
            var12 = 38115.06;
          }
        }
      } else {
        if (input[4] < 88.0) {
          if (input[2] < 5.0) {
            if (input[0] < 3255979.0) {
              var12 = 69261.695;
            } else {
              var12 = -6840.5605;
            }
          } else {
            var12 = 34635.645;
          }
        } else {
          var12 = 9782.252;
        }
      }
    }
  }
  let var13;
  if (input[4] < 81.0) {
    if (input[3] < 17.0) {
      if (input[2] < 114.0) {
        if (input[2] < 108.0) {
          if (input[3] < 1.0) {
            if (input[0] < 156267.0) {
              var13 = 37.887554;
            } else {
              var13 = -20.853275;
            }
          } else {
            if (input[1] < 3.0) {
              var13 = 644.6323;
            } else {
              var13 = 118.77444;
            }
          }
        } else {
          if (input[1] < 1.0) {
            if (input[0] < 240173.0) {
              var13 = -734.0045;
            } else {
              var13 = -635.45966;
            }
          } else {
            if (input[0] < 4037673.0) {
              var13 = 205.46674;
            } else {
              var13 = -3743.7249;
            }
          }
        }
      } else {
        if (input[3] < 16.0) {
          if (input[2] < 189.0) {
            if (input[1] < 8.0) {
              var13 = 2321.5789;
            } else {
              var13 = 764.032;
            }
          } else {
            if (input[0] < 297112.0) {
              var13 = -1568.9767;
            } else {
              var13 = 195.90997;
            }
          }
        } else {
          if (input[1] < 9.0) {
            if (input[0] < 1285514.0) {
              var13 = -6484.9595;
            } else {
              var13 = 1841.9673;
            }
          } else {
            if (input[0] < 4756928.0) {
              var13 = 596.24066;
            } else {
              var13 = -153.31407;
            }
          }
        }
      }
    } else {
      if (input[0] < 1441273.0) {
        if (input[2] < 166.0) {
          if (input[4] < 33.0) {
            if (input[0] < 233650.0) {
              var13 = 893.0491;
            } else {
              var13 = 6110.384;
            }
          } else {
            if (input[3] < 31.0) {
              var13 = -6062.5864;
            } else {
              var13 = 6820.9233;
            }
          }
        } else {
          if (input[2] < 189.0) {
            if (input[2] < 187.0) {
              var13 = -2367.1406;
            } else {
              var13 = -3707.55;
            }
          } else {
            if (input[0] < 626443.0) {
              var13 = -2322.8738;
            } else {
              var13 = 5977.56;
            }
          }
        }
      } else {
        if (input[3] < 39.0) {
          if (input[0] < 15089874.0) {
            if (input[4] < 74.0) {
              var13 = 5738.601;
            } else {
              var13 = -4939.908;
            }
          } else {
            if (input[2] < 108.0) {
              var13 = 5747.4517;
            } else {
              var13 = -4772.6484;
            }
          }
        } else {
          if (input[0] < 1734849.0) {
            if (input[1] < 108.0) {
              var13 = 8698.523;
            } else {
              var13 = -366.8847;
            }
          } else {
            var13 = 22897.123;
          }
        }
      }
    }
  } else {
    if (input[0] < 944424.0) {
      if (input[0] < 925251.0) {
        if (input[1] < 1.0) {
          if (input[4] < 97.0) {
            if (input[0] < 530459.0) {
              var13 = -116.66485;
            } else {
              var13 = -1695.3733;
            }
          } else {
            if (input[2] < 2.0) {
              var13 = 1785.5767;
            } else {
              var13 = 687.2814;
            }
          }
        } else {
          if (input[2] < 10.0) {
            if (input[0] < 493774.0) {
              var13 = -220.3172;
            } else {
              var13 = -540.6818;
            }
          } else {
            var13 = 6004.602;
          }
        }
      } else {
        var13 = -974.78674;
      }
    } else {
      if (input[2] < 255.0) {
        if (input[4] < 88.0) {
          if (input[2] < 197.0) {
            if (input[3] < 8.0) {
              var13 = 4868.5225;
            } else {
              var13 = -6012.165;
            }
          } else {
            if (input[0] < 2116444.0) {
              var13 = -6407.9863;
            } else {
              var13 = 23636.29;
            }
          }
        } else {
          if (input[1] < 83.0) {
            if (input[1] < 81.0) {
              var13 = 2921.6814;
            } else {
              var13 = -306.1922;
            }
          } else {
            var13 = 50596.793;
          }
        }
      } else {
        if (input[3] < 1.0) {
          if (input[0] < 4037673.0) {
            var13 = 15064.095;
          } else {
            if (input[1] < 7.0) {
              var13 = -1770.8954;
            } else {
              var13 = 525.93286;
            }
          }
        } else {
          if (input[2] < 308.0) {
            if (input[2] < 290.0) {
              var13 = 11588.705;
            } else {
              var13 = -2095.589;
            }
          } else {
            if (input[0] < 2956516.0) {
              var13 = 7919.1777;
            } else {
              var13 = 6736.029;
            }
          }
        }
      }
    }
  }
  let var14;
  if (input[2] < 348.0) {
    if (input[1] < 75.0) {
      if (input[1] < 74.0) {
        if (input[0] < 654955.0) {
          if (input[1] < 64.0) {
            if (input[3] < 166.0) {
              var14 = 9.714144;
            } else {
              var14 = -2213.7798;
            }
          } else {
            if (input[2] < 4.0) {
              var14 = -6909.821;
            } else {
              var14 = -1941.5063;
            }
          }
        } else {
          if (input[2] < 13.0) {
            if (input[2] < 7.0) {
              var14 = 120.71142;
            } else {
              var14 = -815.142;
            }
          } else {
            if (input[0] < 1785127.0) {
              var14 = 1605.8146;
            } else {
              var14 = 583.0873;
            }
          }
        }
      } else {
        if (input[0] < 127121.0) {
          if (input[2] < 1.0) {
            var14 = -1541.6877;
          } else {
            var14 = -1260.0956;
          }
        } else {
          var14 = 4430.686;
        }
      }
    } else {
      if (input[4] < 184.0) {
        if (input[4] < 172.0) {
          if (input[4] < 97.0) {
            if (input[0] < 1734849.0) {
              var14 = 9594.127;
            } else {
              var14 = 15391.878;
            }
          } else {
            if (input[2] < 42.0) {
              var14 = -5579.63;
            } else {
              var14 = 14005.525;
            }
          }
        } else {
          var14 = -3669.8018;
        }
      } else {
        var14 = 47528.176;
      }
    }
  } else {
    if (input[0] < 1785127.0) {
      if (input[0] < 1765735.0) {
        if (input[0] < 530459.0) {
          if (input[0] < 493774.0) {
            var14 = 8174.3794;
          } else {
            var14 = -93.557816;
          }
        } else {
          if (input[4] < 68.0) {
            if (input[1] < 23.0) {
              var14 = 6663.7285;
            } else {
              var14 = 117.100815;
            }
          } else {
            if (input[3] < 1.0) {
              var14 = -287.65784;
            } else {
              var14 = -80.98357;
            }
          }
        }
      } else {
        var14 = -3327.4636;
      }
    } else {
      if (input[3] < 1.0) {
        if (input[4] < 81.0) {
          var14 = 20521.434;
        } else {
          if (input[2] < 374.0) {
            if (input[0] < 4268037.0) {
              var14 = -1455.6844;
            } else {
              var14 = 177591.38;
            }
          } else {
            if (input[1] < 16.0) {
              var14 = -807.90875;
            } else {
              var14 = 19137.1;
            }
          }
        }
      } else {
        if (input[4] < 26.0) {
          if (input[1] < 46.0) {
            var14 = 22605.596;
          } else {
            if (input[0] < 5625861.0) {
              var14 = 143.43668;
            } else {
              var14 = 5216.002;
            }
          }
        } else {
          if (input[0] < 3050344.0) {
            if (input[0] < 2956516.0) {
              var14 = 13438.654;
            } else {
              var14 = -467.99533;
            }
          } else {
            if (input[2] < 1242.0) {
              var14 = 25652.012;
            } else {
              var14 = 4439.6016;
            }
          }
        }
      }
    }
  }
  let var15;
  if (input[2] < 348.0) {
    if (input[1] < 93.0) {
      if (input[0] < 32561.0) {
        if (input[2] < 18.0) {
          if (input[3] < 4.0) {
            if (input[2] < 1.0) {
              var15 = 15.916043;
            } else {
              var15 = -41.763577;
            }
          } else {
            if (input[3] < 6.0) {
              var15 = -1087.9185;
            } else {
              var15 = -146.74548;
            }
          }
        } else {
          if (input[2] < 22.0) {
            if (input[0] < 26056.0) {
              var15 = -27.052736;
            } else {
              var15 = -169.67256;
            }
          } else {
            var15 = 444.7043;
          }
        }
      } else {
        if (input[1] < 85.0) {
          if (input[3] < 24.0) {
            if (input[4] < 70.0) {
              var15 = 28.459206;
            } else {
              var15 = 708.2664;
            }
          } else {
            if (input[0] < 20743692.0) {
              var15 = 2383.9626;
            } else {
              var15 = -407.61096;
            }
          }
        } else {
          if (input[2] < 1.0) {
            if (input[0] < 11224514.0) {
              var15 = 69580.57;
            } else {
              var15 = -3425.0344;
            }
          } else {
            if (input[0] < 1113929.0) {
              var15 = -1294.4321;
            } else {
              var15 = -2568.8625;
            }
          }
        }
      }
    } else {
      if (input[4] < 127.0) {
        if (input[4] < 120.0) {
          if (input[1] < 129.0) {
            if (input[1] < 128.0) {
              var15 = 12826.439;
            } else {
              var15 = -4691.9556;
            }
          } else {
            var15 = 21814.049;
          }
        } else {
          if (input[2] < 42.0) {
            var15 = -3905.7424;
          } else {
            var15 = 11160.877;
          }
        }
      } else {
        var15 = 35220.168;
      }
    }
  } else {
    if (input[0] < 1785127.0) {
      if (input[0] < 1765735.0) {
        if (input[0] < 530459.0) {
          if (input[0] < 493774.0) {
            var15 = 5722.0654;
          } else {
            var15 = -65.490234;
          }
        } else {
          if (input[0] < 985821.0) {
            var15 = 6038.2173;
          } else {
            if (input[0] < 1183884.0) {
              var15 = -1180.8347;
            } else {
              var15 = 601.96173;
            }
          }
        }
      } else {
        var15 = -2329.2253;
      }
    } else {
      if (input[3] < 19.0) {
        if (input[1] < 14.0) {
          if (input[0] < 23875828.0) {
            if (input[0] < 2956516.0) {
              var15 = 10598.777;
            } else {
              var15 = 17364.84;
            }
          } else {
            if (input[2] < 463.0) {
              var15 = 1380.3507;
            } else {
              var15 = -1713.2345;
            }
          }
        } else {
          if (input[1] < 56.0) {
            if (input[0] < 7308725.0) {
              var15 = 2879.5027;
            } else {
              var15 = -6029.012;
            }
          } else {
            var15 = 27164.72;
          }
        }
      } else {
        if (input[0] < 4756928.0) {
          if (input[1] < 126.0) {
            if (input[2] < 1859.0) {
              var15 = 18366.562;
            } else {
              var15 = 2998.8113;
            }
          } else {
            if (input[0] < 2247729.0) {
              var15 = -7091.058;
            } else {
              var15 = -360.0094;
            }
          }
        } else {
          var15 = 46422.406;
        }
      }
    }
  }
  let var16;
  if (input[2] < 348.0) {
    if (input[1] < 76.0) {
      if (input[1] < 74.0) {
        if (input[0] < 1441273.0) {
          if (input[0] < 1183884.0) {
            if (input[1] < 64.0) {
              var16 = 12.421436;
            } else {
              var16 = -5291.226;
            }
          } else {
            if (input[4] < 30.0) {
              var16 = -63.42889;
            } else {
              var16 = -1503.4926;
            }
          }
        } else {
          if (input[0] < 1785127.0) {
            if (input[2] < 334.0) {
              var16 = 2016.0706;
            } else {
              var16 = -1884.6656;
            }
          } else {
            if (input[0] < 2116444.0) {
              var16 = -711.3437;
            } else {
              var16 = 165.68375;
            }
          }
        }
      } else {
        if (input[0] < 127121.0) {
          if (input[2] < 1.0) {
            var16 = -1087.7192;
          } else {
            var16 = -890.60455;
          }
        } else {
          if (input[3] < 14.0) {
            var16 = 3997.1226;
          } else {
            if (input[2] < 3.0) {
              var16 = 202.50703;
            } else {
              var16 = -3200.693;
            }
          }
        }
      }
    } else {
      if (input[4] < 262.0) {
        if (input[4] < 172.0) {
          if (input[4] < 97.0) {
            if (input[0] < 1734849.0) {
              var16 = 9981.6875;
            } else {
              var16 = 15466.11;
            }
          } else {
            if (input[0] < 11224514.0) {
              var16 = 5680.139;
            } else {
              var16 = -7102.0737;
            }
          }
        } else {
          if (input[3] < 8.0) {
            if (input[3] < 4.0) {
              var16 = -3883.1814;
            } else {
              var16 = -7459.027;
            }
          } else {
            var16 = 31770.744;
          }
        }
      } else {
        if (input[2] < 30.0) {
          if (input[2] < 12.0) {
            var16 = 32115.014;
          } else {
            if (input[2] < 14.0) {
              var16 = 11873.071;
            } else {
              var16 = 27553.24;
            }
          }
        } else {
          if (input[2] < 37.0) {
            if (input[0] < 7308725.0) {
              var16 = 85961.875;
            } else {
              var16 = 7764.5645;
            }
          } else {
            var16 = 75699.414;
          }
        }
      }
    }
  } else {
    if (input[0] < 571337.0) {
      if (input[0] < 493774.0) {
        var16 = 4005.4456;
      } else {
        var16 = -670.4414;
      }
    } else {
      if (input[0] < 1785127.0) {
        if (input[0] < 985821.0) {
          var16 = 7091.557;
        } else {
          if (input[0] < 1183884.0) {
            if (input[4] < 47.0) {
              var16 = 497.5486;
            } else {
              var16 = -3337.5305;
            }
          } else {
            if (input[4] < 68.0) {
              var16 = 12289.048;
            } else {
              var16 = -360.4022;
            }
          }
        }
      } else {
        if (input[3] < 20.0) {
          if (input[3] < 19.0) {
            if (input[1] < 14.0) {
              var16 = 9332.124;
            } else {
              var16 = 2257.7336;
            }
          } else {
            if (input[1] < 61.0) {
              var16 = 31724.879;
            } else {
              var16 = -8703.422;
            }
          }
        } else {
          if (input[0] < 4756928.0) {
            if (input[1] < 126.0) {
              var16 = 2152.155;
            } else {
              var16 = -3673.2717;
            }
          } else {
            var16 = 32983.85;
          }
        }
      }
    }
  }
  let var17;
  if (input[3] < 20.0) {
    if (input[4] < 88.0) {
      if (input[2] < 156.0) {
        if (input[4] < 74.0) {
          if (input[3] < 1.0) {
            if (input[0] < 156267.0) {
              var17 = 23.666138;
            } else {
              var17 = -54.960808;
            }
          } else {
            if (input[1] < 3.0) {
              var17 = 475.43726;
            } else {
              var17 = 128.65962;
            }
          }
        } else {
          if (input[3] < 7.0) {
            if (input[2] < 87.0) {
              var17 = -375.43576;
            } else {
              var17 = -2757.304;
            }
          } else {
            if (input[1] < 4.0) {
              var17 = -3895.0479;
            } else {
              var17 = -4485.748;
            }
          }
        }
      } else {
        if (input[3] < 19.0) {
          if (input[2] < 177.0) {
            if (input[0] < 2598274.0) {
              var17 = 5012.859;
            } else {
              var17 = -1961.04;
            }
          } else {
            if (input[0] < 674871.0) {
              var17 = -279.4624;
            } else {
              var17 = 494.26584;
            }
          }
        } else {
          if (input[0] < 505961.0) {
            var17 = -1424.4868;
          } else {
            if (input[1] < 23.0) {
              var17 = -2415.251;
            } else {
              var17 = -1434.8954;
            }
          }
        }
      }
    } else {
      if (input[3] < 19.0) {
        if (input[0] < 6306295.0) {
          if (input[4] < 145.0) {
            if (input[0] < 4756928.0) {
              var17 = 2085.7097;
            } else {
              var17 = -1445.513;
            }
          } else {
            if (input[3] < 6.0) {
              var17 = 144.34505;
            } else {
              var17 = -4693.3057;
            }
          }
        } else {
          if (input[4] < 138.0) {
            if (input[0] < 8467581.0) {
              var17 = -4148.6675;
            } else {
              var17 = 1690.4182;
            }
          } else {
            if (input[1] < 85.0) {
              var17 = 22192.66;
            } else {
              var17 = 11265.762;
            }
          }
        }
      } else {
        if (input[1] < 61.0) {
          var17 = 22207.416;
        } else {
          if (input[2] < 422.0) {
            var17 = 11929.805;
          } else {
            var17 = -6092.3955;
          }
        }
      }
    }
  } else {
    if (input[0] < 2116444.0) {
      if (input[0] < 2050462.0) {
        if (input[3] < 82.0) {
          if (input[0] < 253243.0) {
            if (input[2] < 45.0) {
              var17 = -416.57965;
            } else {
              var17 = -6195.2827;
            }
          } else {
            if (input[4] < 88.0) {
              var17 = 3693.946;
            } else {
              var17 = -907.5495;
            }
          }
        } else {
          if (input[3] < 89.0) {
            if (input[1] < 1.0) {
              var17 = 20544.912;
            } else {
              var17 = -3341.1704;
            }
          } else {
            if (input[2] < 308.0) {
              var17 = 565.7344;
            } else {
              var17 = -11441.874;
            }
          }
        }
      } else {
        if (input[1] < 23.0) {
          if (input[2] < 318.0) {
            if (input[4] < 61.0) {
              var17 = 11622.837;
            } else {
              var17 = -3844.8333;
            }
          } else {
            var17 = -2532.6633;
          }
        } else {
          var17 = 20927.242;
        }
      }
    } else {
      if (input[3] < 53.0) {
        if (input[2] < 114.0) {
          if (input[3] < 23.0) {
            if (input[4] < 15.0) {
              var17 = -13840.974;
            } else {
              var17 = -4587.1587;
            }
          } else {
            if (input[1] < 105.0) {
              var17 = 7752.2734;
            } else {
              var17 = -871.8656;
            }
          }
        } else {
          if (input[3] < 28.0) {
            if (input[2] < 139.0) {
              var17 = 33236.88;
            } else {
              var17 = 21147.902;
            }
          } else {
            if (input[1] < 124.0) {
              var17 = 1496.8333;
            } else {
              var17 = -2790.167;
            }
          }
        }
      } else {
        if (input[0] < 2247729.0) {
          if (input[4] < 59.0) {
            var17 = 31868.879;
          } else {
            var17 = -3861.7595;
          }
        } else {
          if (input[0] < 20743692.0) {
            var17 = 21486.748;
          } else {
            if (input[1] < 64.0) {
              var17 = -335.0344;
            } else {
              var17 = 136414.88;
            }
          }
        }
      }
    }
  }
  let var18;
  if (input[2] < 348.0) {
    if (input[1] < 94.0) {
      if (input[1] < 85.0) {
        if (input[0] < 12596.0) {
          if (input[0] < 10079.0) {
            if (input[2] < 11.0) {
              var18 = -16.92246;
            } else {
              var18 = -109.42046;
            }
          } else {
            if (input[1] < 1.0) {
              var18 = -105.87501;
            } else {
              var18 = 2062.9058;
            }
          }
        } else {
          if (input[3] < 6.0) {
            if (input[3] < 5.0) {
              var18 = 25.564047;
            } else {
              var18 = -914.34235;
            }
          } else {
            if (input[1] < 3.0) {
              var18 = 1341.2802;
            } else {
              var18 = 211.90291;
            }
          }
        }
      } else {
        if (input[2] < 1.0) {
          if (input[0] < 11224514.0) {
            var18 = 46491.63;
          } else {
            var18 = -4612.299;
          }
        } else {
          if (input[0] < 7308725.0) {
            if (input[1] < 92.0) {
              var18 = -4012.9783;
            } else {
              var18 = -5134.936;
            }
          } else {
            var18 = 4237.758;
          }
        }
      }
    } else {
      if (input[1] < 168.0) {
        if (input[1] < 158.0) {
          if (input[0] < 9687874.0) {
            if (input[3] < 1.0) {
              var18 = -2761.5283;
            } else {
              var18 = 9517.348;
            }
          } else {
            if (input[0] < 10082696.0) {
              var18 = -1336.7906;
            } else {
              var18 = -1189.4006;
            }
          }
        } else {
          if (input[0] < 4037673.0) {
            if (input[2] < 15.0) {
              var18 = 16720.336;
            } else {
              var18 = -4176.502;
            }
          } else {
            var18 = 19123.398;
          }
        }
      } else {
        var18 = 13638.192;
      }
    }
  } else {
    if (input[0] < 1785127.0) {
      if (input[3] < 11.0) {
        if (input[3] < 7.0) {
          if (input[1] < 6.0) {
            if (input[4] < 51.0) {
              var18 = 299.74316;
            } else {
              var18 = 10055.986;
            }
          } else {
            if (input[0] < 767561.0) {
              var18 = -2127.457;
            } else {
              var18 = -307.45172;
            }
          }
        } else {
          if (input[4] < 1.0) {
            var18 = 26055.922;
          } else {
            if (input[2] < 410.0) {
              var18 = -2484.5508;
            } else {
              var18 = -435.37033;
            }
          }
        }
      } else {
        if (input[0] < 1577662.0) {
          if (input[4] < 66.0) {
            var18 = 8494.808;
          } else {
            if (input[0] < 1285514.0) {
              var18 = 95350.07;
            } else {
              var18 = -789.2485;
            }
          }
        } else {
          if (input[1] < 4.0) {
            var18 = 69996.336;
          } else {
            var18 = -1004.42816;
          }
        }
      }
    } else {
      if (input[4] < 189.0) {
        if (input[4] < 184.0) {
          if (input[0] < 20743692.0) {
            if (input[0] < 8467581.0) {
              var18 = 1150.7965;
            } else {
              var18 = 13193.957;
            }
          } else {
            if (input[3] < 6.0) {
              var18 = 36084.836;
            } else {
              var18 = -4015.2588;
            }
          }
        } else {
          if (input[2] < 1265.0) {
            if (input[0] < 5625861.0) {
              var18 = -3094.947;
            } else {
              var18 = 34167.6;
            }
          } else {
            var18 = 1344.5579;
          }
        }
      } else {
        if (input[3] < 1.0) {
          if (input[2] < 374.0) {
            if (input[0] < 4268037.0) {
              var18 = -2603.4517;
            } else {
              var18 = 112107.51;
            }
          } else {
            if (input[1] < 16.0) {
              var18 = -3470.1821;
            } else {
              var18 = 13216.03;
            }
          }
        } else {
          if (input[2] < 511.0) {
            if (input[4] < 262.0) {
              var18 = 12444.988;
            } else {
              var18 = -6652.036;
            }
          } else {
            var18 = 28191.654;
          }
        }
      }
    }
  }
  let var19;
  if (input[2] < 327.0) {
    if (input[1] < 35.0) {
      if (input[1] < 34.0) {
        if (input[0] < 7646.0) {
          if (input[2] < 8.0) {
            if (input[2] < 4.0) {
              var19 = -61.256527;
            } else {
              var19 = -56.713066;
            }
          } else {
            var19 = 5660.3525;
          }
        } else {
          if (input[3] < 46.0) {
            if (input[2] < 221.0) {
              var19 = 17.380322;
            } else {
              var19 = -352.70776;
            }
          } else {
            if (input[4] < 30.0) {
              var19 = 6008.4683;
            } else {
              var19 = -730.91815;
            }
          }
        }
      } else {
        if (input[2] < 124.0) {
          var19 = 374.2887;
        } else {
          if (input[2] < 139.0) {
            if (input[3] < 9.0) {
              var19 = -2487.4172;
            } else {
              var19 = -12329.04;
            }
          } else {
            var19 = 5887.6875;
          }
        }
      }
    } else {
      if (input[0] < 127121.0) {
        if (input[2] < 1.0) {
          var19 = -776.17267;
        } else {
          var19 = -638.192;
        }
      } else {
        if (input[1] < 168.0) {
          if (input[0] < 11224514.0) {
            if (input[3] < 250.0) {
              var19 = 2885.771;
            } else {
              var19 = -3556.0369;
            }
          } else {
            if (input[0] < 11493054.0) {
              var19 = -3228.6096;
            } else {
              var19 = -180.17871;
            }
          }
        } else {
          var19 = 9531.301;
        }
      }
    }
  } else {
    if (input[1] < 56.0) {
      if (input[1] < 47.0) {
        if (input[3] < 2.0) {
          if (input[4] < 66.0) {
            if (input[1] < 6.0) {
              var19 = 7150.026;
            } else {
              var19 = 241.248;
            }
          } else {
            if (input[0] < 4037673.0) {
              var19 = -230.35078;
            } else {
              var19 = -6021.846;
            }
          }
        } else {
          if (input[0] < 15089874.0) {
            if (input[0] < 5695961.0) {
              var19 = 765.96564;
            } else {
              var19 = 9466.393;
            }
          } else {
            if (input[2] < 463.0) {
              var19 = -777.08997;
            } else {
              var19 = -4604.0674;
            }
          }
        }
      } else {
        if (input[0] < 1968256.0) {
          if (input[0] < 925251.0) {
            var19 = 605.3391;
          } else {
            if (input[0] < 1734849.0) {
              var19 = -703.10156;
            } else {
              var19 = -4050.3938;
            }
          }
        } else {
          if (input[2] < 725.0) {
            var19 = 24690.371;
          } else {
            if (input[0] < 3050344.0) {
              var19 = -2839.7158;
            } else {
              var19 = 29019.38;
            }
          }
        }
      }
    } else {
      if (input[2] < 645.0) {
        if (input[3] < 154.0) {
          if (input[3] < 148.0) {
            if (input[4] < 59.0) {
              var19 = 4931.6836;
            } else {
              var19 = -950.97064;
            }
          } else {
            if (input[1] < 151.0) {
              var19 = -5883.914;
            } else {
              var19 = -5960.414;
            }
          }
        } else {
          var19 = 34785.16;
        }
      } else {
        if (input[4] < 489.0) {
          var19 = 22215.217;
        } else {
          if (input[1] < 84.0) {
            var19 = -1462.9031;
          } else {
            var19 = 113121.45;
          }
        }
      }
    }
  }
  let var20;
  if (input[2] < 147.0) {
    if (input[4] < 184.0) {
      if (input[2] < 133.0) {
        if (input[1] < 4.0) {
          if (input[2] < 24.0) {
            if (input[4] < 127.0) {
              var20 = 1.854876;
            } else {
              var20 = -6213.9824;
            }
          } else {
            if (input[4] < 3.0) {
              var20 = -283.3326;
            } else {
              var20 = 141.67401;
            }
          }
        } else {
          if (input[0] < 5695961.0) {
            if (input[2] < 11.0) {
              var20 = -38.021614;
            } else {
              var20 = 794.3454;
            }
          } else {
            if (input[0] < 7308725.0) {
              var20 = -4770.04;
            } else {
              var20 = -139.07634;
            }
          }
        }
      } else {
        if (input[3] < 103.0) {
          if (input[4] < 2.0) {
            var20 = 2225.8665;
          } else {
            if (input[4] < 14.0) {
              var20 = -2470.9072;
            } else {
              var20 = -418.6023;
            }
          }
        } else {
          var20 = -4304.393;
        }
      }
    } else {
      if (input[1] < 168.0) {
        if (input[1] < 161.0) {
          if (input[0] < 11224514.0) {
            if (input[1] < 111.0) {
              var20 = 2252.1572;
            } else {
              var20 = -2798.8032;
            }
          } else {
            if (input[2] < 1.0) {
              var20 = -2260.0266;
            } else {
              var20 = 3935.011;
            }
          }
        } else {
          if (input[2] < 19.0) {
            var20 = 10838.504;
          } else {
            var20 = -3426.1033;
          }
        }
      } else {
        var20 = 12880.735;
      }
    }
  } else {
    if (input[0] < 674871.0) {
      if (input[1] < 64.0) {
        if (input[1] < 4.0) {
          if (input[0] < 290067.0) {
            if (input[4] < 3.0) {
              var20 = -1072.3883;
            } else {
              var20 = -3427.0618;
            }
          } else {
            if (input[1] < 1.0) {
              var20 = 87.39206;
            } else {
              var20 = 5081.873;
            }
          }
        } else {
          if (input[4] < 4.0) {
            if (input[1] < 22.0) {
              var20 = -1328.9025;
            } else {
              var20 = -2150.597;
            }
          } else {
            if (input[0] < 608405.0) {
              var20 = 1069.9781;
            } else {
              var20 = -823.39923;
            }
          }
        }
      } else {
        if (input[0] < 595620.0) {
          var20 = -1860.1617;
        } else {
          var20 = -2524.3618;
        }
      }
    } else {
      if (input[1] < 28.0) {
        if (input[1] < 16.0) {
          if (input[4] < 7.0) {
            var20 = 8345.561;
          } else {
            if (input[4] < 34.0) {
              var20 = -301.40536;
            } else {
              var20 = 665.13007;
            }
          }
        } else {
          if (input[3] < 38.0) {
            if (input[4] < 28.0) {
              var20 = 6337.489;
            } else {
              var20 = -375.6957;
            }
          } else {
            if (input[0] < 1577662.0) {
              var20 = 875.8182;
            } else {
              var20 = -5056.0503;
            }
          }
        }
      } else {
        if (input[4] < 3.0) {
          if (input[2] < 259.0) {
            if (input[0] < 1577662.0) {
              var20 = -4999.922;
            } else {
              var20 = -690.26953;
            }
          } else {
            if (input[3] < 58.0) {
              var20 = 2552.8547;
            } else {
              var20 = -2835.2766;
            }
          }
        } else {
          if (input[2] < 1242.0) {
            if (input[3] < 177.0) {
              var20 = 3440.4602;
            } else {
              var20 = 36912.08;
            }
          } else {
            var20 = 28471.76;
          }
        }
      }
    }
  }
  let var21;
  if (input[2] < 147.0) {
    if (input[1] < 10.0) {
      if (input[0] < 156267.0) {
        if (input[0] < 127121.0) {
          if (input[4] < 3.0) {
            if (input[2] < 18.0) {
              var21 = 1.517951;
            } else {
              var21 = -180.10034;
            }
          } else {
            if (input[0] < 53933.0) {
              var21 = 2.7631721;
            } else {
              var21 = 948.8102;
            }
          }
        } else {
          if (input[2] < 3.0) {
            if (input[1] < 1.0) {
              var21 = 2794.3591;
            } else {
              var21 = -211.377;
            }
          } else {
            if (input[4] < 18.0) {
              var21 = 197.59573;
            } else {
              var21 = -467.28653;
            }
          }
        }
      } else {
        if (input[0] < 176045.0) {
          if (input[2] < 30.0) {
            if (input[1] < 3.0) {
              var21 = -66.736565;
            } else {
              var21 = -2000.3307;
            }
          } else {
            if (input[2] < 45.0) {
              var21 = -37.476124;
            } else {
              var21 = 2135.6333;
            }
          }
        } else {
          if (input[3] < 1.0) {
            if (input[0] < 6306295.0) {
              var21 = -121.37996;
            } else {
              var21 = 107.5656;
            }
          } else {
            if (input[4] < 120.0) {
              var21 = 1291.3099;
            } else {
              var21 = -725.4049;
            }
          }
        }
      }
    } else {
      if (input[2] < 90.0) {
        if (input[2] < 8.0) {
          if (input[4] < 88.0) {
            if (input[4] < 5.0) {
              var21 = 1569.91;
            } else {
              var21 = -301.81888;
            }
          } else {
            if (input[1] < 137.0) {
              var21 = 3038.3977;
            } else {
              var21 = 7638.667;
            }
          }
        } else {
          if (input[0] < 195674.0) {
            if (input[4] < 2.0) {
              var21 = 884.7526;
            } else {
              var21 = -1778.3142;
            }
          } else {
            if (input[3] < 15.0) {
              var21 = 2753.8599;
            } else {
              var21 = 1134.8673;
            }
          }
        }
      } else {
        if (input[0] < 608405.0) {
          if (input[3] < 46.0) {
            if (input[3] < 4.0) {
              var21 = 1141.858;
            } else {
              var21 = -1644.203;
            }
          } else {
            var21 = -3013.076;
          }
        } else {
          if (input[4] < 14.0) {
            if (input[3] < 6.0) {
              var21 = -2704.2727;
            } else {
              var21 = -373.54465;
            }
          } else {
            if (input[4] < 32.0) {
              var21 = 18829.54;
            } else {
              var21 = -1311.458;
            }
          }
        }
      }
    }
  } else {
    if (input[1] < 130.0) {
      if (input[1] < 4.0) {
        if (input[0] < 277120.0) {
          if (input[3] < 5.0) {
            if (input[2] < 225.0) {
              var21 = 2262.5332;
            } else {
              var21 = -900.38617;
            }
          } else {
            var21 = -2398.943;
          }
        } else {
          if (input[2] < 177.0) {
            if (input[0] < 2598274.0) {
              var21 = 5363.4814;
            } else {
              var21 = -2015.4987;
            }
          } else {
            if (input[0] < 1763707.0) {
              var21 = 88.33044;
            } else {
              var21 = 6393.6646;
            }
          }
        }
      } else {
        if (input[0] < 767561.0) {
          if (input[3] < 17.0) {
            if (input[0] < 505961.0) {
              var21 = 2842.1182;
            } else {
              var21 = -608.2078;
            }
          } else {
            if (input[0] < 505961.0) {
              var21 = -1386.9176;
            } else {
              var21 = -1915.9186;
            }
          }
        } else {
          if (input[2] < 166.0) {
            if (input[0] < 9032213.0) {
              var21 = 4068.7993;
            } else {
              var21 = -1878.6364;
            }
          } else {
            if (input[2] < 177.0) {
              var21 = -2281.3513;
            } else {
              var21 = 363.29257;
            }
          }
        }
      }
    } else {
      if (input[0] < 2956516.0) {
        if (input[3] < 148.0) {
          var21 = 2213.8994;
        } else {
          if (input[0] < 2247729.0) {
            var21 = 118980.164;
          } else {
            if (input[2] < 511.0) {
              var21 = -6092.897;
            } else {
              var21 = 9538.903;
            }
          }
        }
      } else {
        var21 = 54319.33;
      }
    }
  }
  let var22;
  if (input[1] < 130.0) {
    if (input[2] < 160.0) {
      if (input[3] < 24.0) {
        if (input[3] < 23.0) {
          if (input[2] < 82.0) {
            if (input[2] < 75.0) {
              var22 = 12.302997;
            } else {
              var22 = 4192.298;
            }
          } else {
            if (input[3] < 21.0) {
              var22 = -272.9323;
            } else {
              var22 = -4707.8755;
            }
          }
        } else {
          if (input[4] < 43.0) {
            if (input[2] < 3.0) {
              var22 = -750.97974;
            } else {
              var22 = -6807.7134;
            }
          } else {
            if (input[1] < 2.0) {
              var22 = 45132.316;
            } else {
              var22 = -5162.9956;
            }
          }
        }
      } else {
        if (input[3] < 145.0) {
          if (input[0] < 404237.0) {
            if (input[4] < 7.0) {
              var22 = 649.68896;
            } else {
              var22 = -1657.0829;
            }
          } else {
            if (input[1] < 37.0) {
              var22 = 3765.611;
            } else {
              var22 = -1332.0845;
            }
          }
        } else {
          if (input[2] < 124.0) {
            if (input[2] < 94.0) {
              var22 = 4885.2236;
            } else {
              var22 = -1354.7072;
            }
          } else {
            if (input[0] < 571337.0) {
              var22 = -2109.1523;
            } else {
              var22 = 643259.5;
            }
          }
        }
      }
    } else {
      if (input[1] < 4.0) {
        if (input[2] < 177.0) {
          if (input[3] < 68.0) {
            if (input[4] < 79.0) {
              var22 = 6728.2476;
            } else {
              var22 = 2543.597;
            }
          } else {
            var22 = -9743.354;
          }
        } else {
          if (input[4] < 53.0) {
            if (input[4] < 49.0) {
              var22 = 97.50141;
            } else {
              var22 = -4705.5024;
            }
          } else {
            if (input[3] < 4.0) {
              var22 = 2647.2808;
            } else {
              var22 = -251.41405;
            }
          }
        }
      } else {
        if (input[4] < 1.0) {
          if (input[3] < 10.0) {
            if (input[0] < 195674.0) {
              var22 = -497.3918;
            } else {
              var22 = 5958.8687;
            }
          } else {
            if (input[3] < 14.0) {
              var22 = -1322.9556;
            } else {
              var22 = -2093.6814;
            }
          }
        } else {
          if (input[3] < 2.0) {
            if (input[2] < 166.0) {
              var22 = 15984.446;
            } else {
